{
  "created_at": "2026-01-02T20:00:25.470289",
  "feature_names": [
    "pxi_score",
    "pxi_delta_1d",
    "pxi_delta_7d",
    "pxi_delta_30d",
    "momentum_7d_signal",
    "momentum_30d_signal",
    "acceleration",
    "acceleration_signal",
    "cat_breadth",
    "cat_credit",
    "cat_crypto",
    "cat_global",
    "cat_liquidity",
    "cat_macro",
    "cat_positioning",
    "cat_volatility",
    "category_dispersion",
    "category_std",
    "strong_categories_count",
    "weak_categories_count",
    "vix",
    "hy_spread",
    "ig_spread",
    "breadth_ratio",
    "yield_curve",
    "dxy",
    "btc_vs_200d",
    "pxi_ma_5",
    "pxi_ma_20",
    "pxi_std_20",
    "pxi_vs_ma_20",
    "above_50",
    "extreme_low",
    "extreme_high",
    "vix_ma_20",
    "vix_vs_ma"
  ],
  "models": {
    "7d": {
      "type": "xgboost",
      "version": "1.0",
      "n_estimators": 100,
      "base_score": 0.5,
      "feature_names": [
        "pxi_score",
        "pxi_delta_1d",
        "pxi_delta_7d",
        "pxi_delta_30d",
        "momentum_7d_signal",
        "momentum_30d_signal",
        "acceleration",
        "acceleration_signal",
        "cat_breadth",
        "cat_credit",
        "cat_crypto",
        "cat_global",
        "cat_liquidity",
        "cat_macro",
        "cat_positioning",
        "cat_volatility",
        "category_dispersion",
        "category_std",
        "strong_categories_count",
        "weak_categories_count",
        "vix",
        "hy_spread",
        "ig_spread",
        "breadth_ratio",
        "yield_curve",
        "dxy",
        "btc_vs_200d",
        "pxi_ma_5",
        "pxi_ma_20",
        "pxi_std_20",
        "pxi_vs_ma_20",
        "above_50",
        "extreme_low",
        "extreme_high",
        "vix_ma_20",
        "vix_vs_ma"
      ],
      "trees": [
        {
          "nodeid": 0,
          "depth": 0,
          "split": "f9",
          "split_condition": 85.5465546,
          "yes": 1,
          "no": 2,
          "missing": 1,
          "children": [
            {
              "nodeid": 1,
              "depth": 1,
              "split": "f30",
              "split_condition": -1.54196596,
              "yes": 3,
              "no": 4,
              "missing": 4,
              "children": [
                {
                  "nodeid": 3,
                  "depth": 2,
                  "split": "f34",
                  "split_condition": 19.4864292,
                  "yes": 7,
                  "no": 8,
                  "missing": 8,
                  "children": [
                    {
                      "nodeid": 7,
                      "depth": 3,
                      "split": "f30",
                      "split_condition": -6.68023109,
                      "yes": 15,
                      "no": 16,
                      "missing": 16,
                      "children": [
                        {
                          "nodeid": 15,
                          "leaf": 0.303786784
                        },
                        {
                          "nodeid": 16,
                          "leaf": 0.0449878089
                        }
                      ]
                    },
                    {
                      "nodeid": 8,
                      "depth": 3,
                      "split": "f10",
                      "split_condition": 48.1101151,
                      "yes": 17,
                      "no": 18,
                      "missing": 18,
                      "children": [
                        {
                          "nodeid": 17,
                          "leaf": 0.595979512
                        },
                        {
                          "nodeid": 18,
                          "leaf": 0.00867917668
                        }
                      ]
                    }
                  ]
                },
                {
                  "nodeid": 4,
                  "depth": 2,
                  "split": "f34",
                  "split_condition": 16.3080006,
                  "yes": 9,
                  "no": 10,
                  "missing": 9,
                  "children": [
                    {
                      "nodeid": 9,
                      "depth": 3,
                      "split": "f24",
                      "split_condition": -0.300000012,
                      "yes": 19,
                      "no": 20,
                      "missing": 20,
                      "children": [
                        {
                          "nodeid": 19,
                          "leaf": -0.108273402
                        },
                        {
                          "nodeid": 20,
                          "leaf": -0.356314719
                        }
                      ]
                    },
                    {
                      "nodeid": 10,
                      "depth": 3,
                      "split": "f24",
                      "split_condition": 0.5,
                      "yes": 21,
                      "no": 22,
                      "missing": 21,
                      "children": [
                        {
                          "nodeid": 21,
                          "leaf": -0.00983596873
                        },
                        {
                          "nodeid": 22,
                          "leaf": 0.244561225
                        }
                      ]
                    }
                  ]
                }
              ]
            },
            {
              "nodeid": 2,
              "depth": 1,
              "split": "f10",
              "split_condition": 77.1713181,
              "yes": 5,
              "no": 6,
              "missing": 6,
              "children": [
                {
                  "nodeid": 5,
                  "depth": 2,
                  "split": "f8",
                  "split_condition": 5.24568415,
                  "yes": 11,
                  "no": 12,
                  "missing": 11,
                  "children": [
                    {
                      "nodeid": 11,
                      "depth": 3,
                      "split": "f30",
                      "split_condition": 13.8975296,
                      "yes": 23,
                      "no": 24,
                      "missing": 24,
                      "children": [
                        {
                          "nodeid": 23,
                          "leaf": -1.03565919
                        },
                        {
                          "nodeid": 24,
                          "leaf": -0.197531983
                        }
                      ]
                    },
                    {
                      "nodeid": 12,
                      "depth": 3,
                      "split": "f8",
                      "split_condition": 14.6746349,
                      "yes": 25,
                      "no": 26,
                      "missing": 26,
                      "children": [
                        {
                          "nodeid": 25,
                          "leaf": 0.0270463564
                        },
                        {
                          "nodeid": 26,
                          "leaf": -0.49949351
                        }
                      ]
                    }
                  ]
                },
                {
                  "nodeid": 6,
                  "depth": 2,
                  "split": "f27",
                  "split_condition": 70.4271698,
                  "yes": 13,
                  "no": 14,
                  "missing": 14,
                  "children": [
                    {
                      "nodeid": 13,
                      "leaf": -1.39573407
                    },
                    {
                      "nodeid": 14,
                      "depth": 3,
                      "split": "f8",
                      "split_condition": 12.1513948,
                      "yes": 27,
                      "no": 28,
                      "missing": 28,
                      "children": [
                        {
                          "nodeid": 27,
                          "leaf": -0.367522031
                        },
                        {
                          "nodeid": 28,
                          "leaf": -0.821823061
                        }
                      ]
                    }
                  ]
                }
              ]
            }
          ]
        },
        {
          "nodeid": 0,
          "depth": 0,
          "split": "f30",
          "split_condition": -1.54196596,
          "yes": 1,
          "no": 2,
          "missing": 2,
          "children": [
            {
              "nodeid": 1,
              "depth": 1,
              "split": "f0",
              "split_condition": 55.3403816,
              "yes": 3,
              "no": 4,
              "missing": 4,
              "children": [
                {
                  "nodeid": 3,
                  "depth": 2,
                  "split": "f28",
                  "split_condition": 67.4440994,
                  "yes": 7,
                  "no": 8,
                  "missing": 8,
                  "children": [
                    {
                      "nodeid": 7,
                      "depth": 3,
                      "split": "f34",
                      "split_condition": 19.735384,
                      "yes": 15,
                      "no": 16,
                      "missing": 16,
                      "children": [
                        {
                          "nodeid": 15,
                          "leaf": 0.161723107
                        },
                        {
                          "nodeid": 16,
                          "leaf": 0.415227622
                        }
                      ]
                    },
                    {
                      "nodeid": 8,
                      "leaf": 1.06256187
                    }
                  ]
                },
                {
                  "nodeid": 4,
                  "depth": 2,
                  "split": "f10",
                  "split_condition": 79.4362335,
                  "yes": 9,
                  "no": 10,
                  "missing": 10,
                  "children": [
                    {
                      "nodeid": 9,
                      "depth": 3,
                      "split": "f11",
                      "split_condition": 59.768055,
                      "yes": 17,
                      "no": 18,
                      "missing": 18,
                      "children": [
                        {
                          "nodeid": 17,
                          "leaf": 0.443093508
                        },
                        {
                          "nodeid": 18,
                          "leaf": -0.147953078
                        }
                      ]
                    },
                    {
                      "nodeid": 10,
                      "depth": 3,
                      "split": "f30",
                      "split_condition": -4.27814579,
                      "yes": 19,
                      "no": 20,
                      "missing": 20,
                      "children": [
                        {
                          "nodeid": 19,
                          "leaf": -0.554685056
                        },
                        {
                          "nodeid": 20,
                          "leaf": -0.124340415
                        }
                      ]
                    }
                  ]
                }
              ]
            },
            {
              "nodeid": 2,
              "depth": 1,
              "split": "f34",
              "split_condition": 16.5671425,
              "yes": 5,
              "no": 6,
              "missing": 5,
              "children": [
                {
                  "nodeid": 5,
                  "depth": 2,
                  "split": "f11",
                  "split_condition": 67.0500031,
                  "yes": 11,
                  "no": 12,
                  "missing": 11,
                  "children": [
                    {
                      "nodeid": 11,
                      "depth": 3,
                      "split": "f13",
                      "split_condition": 47.6112366,
                      "yes": 21,
                      "no": 22,
                      "missing": 22,
                      "children": [
                        {
                          "nodeid": 21,
                          "leaf": -0.461926788
                        },
                        {
                          "nodeid": 22,
                          "leaf": -0.145642355
                        }
                      ]
                    },
                    {
                      "nodeid": 12,
                      "depth": 3,
                      "split": "f24",
                      "split_condition": 0.680000007,
                      "yes": 23,
                      "no": 24,
                      "missing": 24,
                      "children": [
                        {
                          "nodeid": 23,
                          "leaf": -0.401663035
                        },
                        {
                          "nodeid": 24,
                          "leaf": -1.49867594
                        }
                      ]
                    }
                  ]
                },
                {
                  "nodeid": 6,
                  "depth": 2,
                  "split": "f17",
                  "split_condition": 29.6683464,
                  "yes": 13,
                  "no": 14,
                  "missing": 14,
                  "children": [
                    {
                      "nodeid": 13,
                      "depth": 3,
                      "split": "f24",
                      "split_condition": 0.159999996,
                      "yes": 25,
                      "no": 26,
                      "missing": 25,
                      "children": [
                        {
                          "nodeid": 25,
                          "leaf": 0.23597987
                        },
                        {
                          "nodeid": 26,
                          "leaf": -0.0326873772
                        }
                      ]
                    },
                    {
                      "nodeid": 14,
                      "depth": 3,
                      "split": "f13",
                      "split_condition": 77.2435913,
                      "yes": 27,
                      "no": 28,
                      "missing": 28,
                      "children": [
                        {
                          "nodeid": 27,
                          "leaf": -0.53108114
                        },
                        {
                          "nodeid": 28,
                          "leaf": -0.0442735106
                        }
                      ]
                    }
                  ]
                }
              ]
            }
          ]
        },
        {
          "nodeid": 0,
          "depth": 0,
          "split": "f30",
          "split_condition": 4.82645464,
          "yes": 1,
          "no": 2,
          "missing": 2,
          "children": [
            {
              "nodeid": 1,
              "depth": 1,
              "split": "f20",
              "split_condition": 17.6100006,
              "yes": 3,
              "no": 4,
              "missing": 4,
              "children": [
                {
                  "nodeid": 3,
                  "depth": 2,
                  "split": "f8",
                  "split_condition": 1.66002655,
                  "yes": 7,
                  "no": 8,
                  "missing": 8,
                  "children": [
                    {
                      "nodeid": 7,
                      "leaf": -0.694229722
                    },
                    {
                      "nodeid": 8,
                      "depth": 3,
                      "split": "f15",
                      "split_condition": 67.3613205,
                      "yes": 15,
                      "no": 16,
                      "missing": 16,
                      "children": [
                        {
                          "nodeid": 15,
                          "leaf": 0.063768819
                        },
                        {
                          "nodeid": 16,
                          "leaf": -0.153082818
                        }
                      ]
                    }
                  ]
                },
                {
                  "nodeid": 4,
                  "depth": 2,
                  "split": "f13",
                  "split_condition": 73.397438,
                  "yes": 9,
                  "no": 10,
                  "missing": 9,
                  "children": [
                    {
                      "nodeid": 9,
                      "depth": 3,
                      "split": "f29",
                      "split_condition": 12.9394016,
                      "yes": 17,
                      "no": 18,
                      "missing": 17,
                      "children": [
                        {
                          "nodeid": 17,
                          "leaf": 0.154583186
                        },
                        {
                          "nodeid": 18,
                          "leaf": 0.879179299
                        }
                      ]
                    },
                    {
                      "nodeid": 10,
                      "depth": 3,
                      "split": "f10",
                      "split_condition": 26.6582794,
                      "yes": 19,
                      "no": 20,
                      "missing": 20,
                      "children": [
                        {
                          "nodeid": 19,
                          "leaf": 0.234994635
                        },
                        {
                          "nodeid": 20,
                          "leaf": 1.08538604
                        }
                      ]
                    }
                  ]
                }
              ]
            },
            {
              "nodeid": 2,
              "depth": 1,
              "split": "f9",
              "split_condition": 86.9651489,
              "yes": 5,
              "no": 6,
              "missing": 5,
              "children": [
                {
                  "nodeid": 5,
                  "depth": 2,
                  "split": "f24",
                  "split_condition": 0.519999981,
                  "yes": 11,
                  "no": 12,
                  "missing": 11,
                  "children": [
                    {
                      "nodeid": 11,
                      "depth": 3,
                      "split": "f15",
                      "split_condition": 40.5761566,
                      "yes": 21,
                      "no": 22,
                      "missing": 22,
                      "children": [
                        {
                          "nodeid": 21,
                          "leaf": 0.111977831
                        },
                        {
                          "nodeid": 22,
                          "leaf": -0.207918689
                        }
                      ]
                    },
                    {
                      "nodeid": 12,
                      "depth": 3,
                      "split": "f10",
                      "split_condition": 50.6442871,
                      "yes": 23,
                      "no": 24,
                      "missing": 24,
                      "children": [
                        {
                          "nodeid": 23,
                          "leaf": 0.130246118
                        },
                        {
                          "nodeid": 24,
                          "leaf": 0.43840763
                        }
                      ]
                    }
                  ]
                },
                {
                  "nodeid": 6,
                  "depth": 2,
                  "split": "f24",
                  "split_condition": 0.360000014,
                  "yes": 13,
                  "no": 14,
                  "missing": 13,
                  "children": [
                    {
                      "nodeid": 13,
                      "leaf": -0.111761235
                    },
                    {
                      "nodeid": 14,
                      "depth": 3,
                      "split": "f9",
                      "split_condition": 92.2478409,
                      "yes": 25,
                      "no": 26,
                      "missing": 26,
                      "children": [
                        {
                          "nodeid": 25,
                          "leaf": -0.96832639
                        },
                        {
                          "nodeid": 26,
                          "leaf": -0.232227355
                        }
                      ]
                    }
                  ]
                }
              ]
            }
          ]
        },
        {
          "nodeid": 0,
          "depth": 0,
          "split": "f9",
          "split_condition": 85.5465546,
          "yes": 1,
          "no": 2,
          "missing": 1,
          "children": [
            {
              "nodeid": 1,
              "depth": 1,
              "split": "f30",
              "split_condition": -1.54196596,
              "yes": 3,
              "no": 4,
              "missing": 4,
              "children": [
                {
                  "nodeid": 3,
                  "depth": 2,
                  "split": "f25",
                  "split_condition": 98.9300003,
                  "yes": 7,
                  "no": 8,
                  "missing": 8,
                  "children": [
                    {
                      "nodeid": 7,
                      "depth": 3,
                      "split": "f28",
                      "split_condition": 55.3447342,
                      "yes": 13,
                      "no": 14,
                      "missing": 14,
                      "children": [
                        {
                          "nodeid": 13,
                          "leaf": 0.320330232
                        },
                        {
                          "nodeid": 14,
                          "leaf": 0.918394029
                        }
                      ]
                    },
                    {
                      "nodeid": 8,
                      "depth": 3,
                      "split": "f34",
                      "split_condition": 19.735384,
                      "yes": 15,
                      "no": 16,
                      "missing": 16,
                      "children": [
                        {
                          "nodeid": 15,
                          "leaf": 0.07909666
                        },
                        {
                          "nodeid": 16,
                          "leaf": 0.394761175
                        }
                      ]
                    }
                  ]
                },
                {
                  "nodeid": 4,
                  "depth": 2,
                  "split": "f20",
                  "split_condition": 19.6299992,
                  "yes": 9,
                  "no": 10,
                  "missing": 9,
                  "children": [
                    {
                      "nodeid": 9,
                      "depth": 3,
                      "split": "f24",
                      "split_condition": 0.5,
                      "yes": 17,
                      "no": 18,
                      "missing": 17,
                      "children": [
                        {
                          "nodeid": 17,
                          "leaf": -0.109916046
                        },
                        {
                          "nodeid": 18,
                          "leaf": 0.17447415
                        }
                      ]
                    },
                    {
                      "nodeid": 10,
                      "depth": 3,
                      "split": "f24",
                      "split_condition": -0.419999987,
                      "yes": 19,
                      "no": 20,
                      "missing": 20,
                      "children": [
                        {
                          "nodeid": 19,
                          "leaf": 0.0697622672
                        },
                        {
                          "nodeid": 20,
                          "leaf": 0.468576044
                        }
                      ]
                    }
                  ]
                }
              ]
            },
            {
              "nodeid": 2,
              "depth": 1,
              "split": "f20",
              "split_condition": 14.1000004,
              "yes": 5,
              "no": 6,
              "missing": 6,
              "children": [
                {
                  "nodeid": 5,
                  "leaf": -1.25784338
                },
                {
                  "nodeid": 6,
                  "depth": 2,
                  "split": "f8",
                  "split_condition": 15.073041,
                  "yes": 11,
                  "no": 12,
                  "missing": 11,
                  "children": [
                    {
                      "nodeid": 11,
                      "depth": 3,
                      "split": "f9",
                      "split_condition": 88.122345,
                      "yes": 21,
                      "no": 22,
                      "missing": 22,
                      "children": [
                        {
                          "nodeid": 21,
                          "leaf": 0.208353385
                        },
                        {
                          "nodeid": 22,
                          "leaf": -0.347091526
                        }
                      ]
                    },
                    {
                      "nodeid": 12,
                      "depth": 3,
                      "split": "f34",
                      "split_condition": 16.5223083,
                      "yes": 23,
                      "no": 24,
                      "missing": 24,
                      "children": [
                        {
                          "nodeid": 23,
                          "leaf": -1.14423692
                        },
                        {
                          "nodeid": 24,
                          "leaf": -0.271804303
                        }
                      ]
                    }
                  ]
                }
              ]
            }
          ]
        },
        {
          "nodeid": 0,
          "depth": 0,
          "split": "f9",
          "split_condition": 85.3704834,
          "yes": 1,
          "no": 2,
          "missing": 1,
          "children": [
            {
              "nodeid": 1,
              "depth": 1,
              "split": "f30",
              "split_condition": -1.54196596,
              "yes": 3,
              "no": 4,
              "missing": 4,
              "children": [
                {
                  "nodeid": 3,
                  "depth": 2,
                  "split": "f25",
                  "split_condition": 98.9400024,
                  "yes": 7,
                  "no": 8,
                  "missing": 8,
                  "children": [
                    {
                      "nodeid": 7,
                      "depth": 3,
                      "split": "f13",
                      "split_condition": 78.1100006,
                      "yes": 15,
                      "no": 16,
                      "missing": 16,
                      "children": [
                        {
                          "nodeid": 15,
                          "leaf": 1.03739846
                        },
                        {
                          "nodeid": 16,
                          "leaf": 0.459137261
                        }
                      ]
                    },
                    {
                      "nodeid": 8,
                      "depth": 3,
                      "split": "f25",
                      "split_condition": 108.959999,
                      "yes": 17,
                      "no": 18,
                      "missing": 17,
                      "children": [
                        {
                          "nodeid": 17,
                          "leaf": 0.119461432
                        },
                        {
                          "nodeid": 18,
                          "leaf": 0.75799793
                        }
                      ]
                    }
                  ]
                },
                {
                  "nodeid": 4,
                  "depth": 2,
                  "split": "f11",
                  "split_condition": 35.8539429,
                  "yes": 9,
                  "no": 10,
                  "missing": 10,
                  "children": [
                    {
                      "nodeid": 9,
                      "depth": 3,
                      "split": "f20",
                      "split_condition": 16.7199993,
                      "yes": 19,
                      "no": 20,
                      "missing": 20,
                      "children": [
                        {
                          "nodeid": 19,
                          "leaf": 0.14817135
                        },
                        {
                          "nodeid": 20,
                          "leaf": 0.492282599
                        }
                      ]
                    },
                    {
                      "nodeid": 10,
                      "depth": 3,
                      "split": "f24",
                      "split_condition": 0.469999999,
                      "yes": 21,
                      "no": 22,
                      "missing": 21,
                      "children": [
                        {
                          "nodeid": 21,
                          "leaf": -0.116149239
                        },
                        {
                          "nodeid": 22,
                          "leaf": 0.145944908
                        }
                      ]
                    }
                  ]
                }
              ]
            },
            {
              "nodeid": 2,
              "depth": 1,
              "split": "f25",
              "split_condition": 98.7799988,
              "yes": 5,
              "no": 6,
              "missing": 5,
              "children": [
                {
                  "nodeid": 5,
                  "depth": 2,
                  "split": "f27",
                  "split_condition": 69.5239639,
                  "yes": 11,
                  "no": 12,
                  "missing": 12,
                  "children": [
                    {
                      "nodeid": 11,
                      "depth": 3,
                      "split": "f13",
                      "split_condition": 32.051281,
                      "yes": 23,
                      "no": 24,
                      "missing": 23,
                      "children": [
                        {
                          "nodeid": 23,
                          "leaf": 0.0820527524
                        },
                        {
                          "nodeid": 24,
                          "leaf": -0.480042189
                        }
                      ]
                    },
                    {
                      "nodeid": 12,
                      "depth": 3,
                      "split": "f28",
                      "split_condition": 68.2763977,
                      "yes": 25,
                      "no": 26,
                      "missing": 26,
                      "children": [
                        {
                          "nodeid": 25,
                          "leaf": -0.918611825
                        },
                        {
                          "nodeid": 26,
                          "leaf": -0.224053055
                        }
                      ]
                    }
                  ]
                },
                {
                  "nodeid": 6,
                  "depth": 2,
                  "split": "f8",
                  "split_condition": 29.5484734,
                  "yes": 13,
                  "no": 14,
                  "missing": 14,
                  "children": [
                    {
                      "nodeid": 13,
                      "depth": 3,
                      "split": "f25",
                      "split_condition": 107.169998,
                      "yes": 27,
                      "no": 28,
                      "missing": 28,
                      "children": [
                        {
                          "nodeid": 27,
                          "leaf": -0.924919546
                        },
                        {
                          "nodeid": 28,
                          "leaf": -0.467429549
                        }
                      ]
                    },
                    {
                      "nodeid": 14,
                      "leaf": -0.181004599
                    }
                  ]
                }
              ]
            }
          ]
        },
        {
          "nodeid": 0,
          "depth": 0,
          "split": "f15",
          "split_condition": 16.579834,
          "yes": 1,
          "no": 2,
          "missing": 2,
          "children": [
            {
              "nodeid": 1,
              "depth": 1,
              "split": "f11",
              "split_condition": 43.8249474,
              "yes": 3,
              "no": 4,
              "missing": 4,
              "children": [
                {
                  "nodeid": 3,
                  "depth": 2,
                  "split": "f19",
                  "split_condition": 2,
                  "yes": 7,
                  "no": 8,
                  "missing": 8,
                  "children": [
                    {
                      "nodeid": 7,
                      "depth": 3,
                      "split": "f34",
                      "split_condition": 21.5949993,
                      "yes": 15,
                      "no": 16,
                      "missing": 16,
                      "children": [
                        {
                          "nodeid": 15,
                          "leaf": -0.42695576
                        },
                        {
                          "nodeid": 16,
                          "leaf": 0.21038489
                        }
                      ]
                    },
                    {
                      "nodeid": 8,
                      "depth": 3,
                      "split": "f25",
                      "split_condition": 106.209999,
                      "yes": 17,
                      "no": 18,
                      "missing": 18,
                      "children": [
                        {
                          "nodeid": 17,
                          "leaf": 0.221636161
                        },
                        {
                          "nodeid": 18,
                          "leaf": 0.893128395
                        }
                      ]
                    }
                  ]
                },
                {
                  "nodeid": 4,
                  "depth": 2,
                  "split": "f29",
                  "split_condition": 8.84192944,
                  "yes": 9,
                  "no": 10,
                  "missing": 10,
                  "children": [
                    {
                      "nodeid": 9,
                      "depth": 3,
                      "split": "f29",
                      "split_condition": 7.83161974,
                      "yes": 19,
                      "no": 20,
                      "missing": 20,
                      "children": [
                        {
                          "nodeid": 19,
                          "leaf": 0.436832637
                        },
                        {
                          "nodeid": 20,
                          "leaf": 1.03314495
                        }
                      ]
                    },
                    {
                      "nodeid": 10,
                      "depth": 3,
                      "split": "f24",
                      "split_condition": 0.540000021,
                      "yes": 21,
                      "no": 22,
                      "missing": 22,
                      "children": [
                        {
                          "nodeid": 21,
                          "leaf": 0.0382107534
                        },
                        {
                          "nodeid": 22,
                          "leaf": 0.449215561
                        }
                      ]
                    }
                  ]
                }
              ]
            },
            {
              "nodeid": 2,
              "depth": 1,
              "split": "f9",
              "split_condition": 84.4255066,
              "yes": 5,
              "no": 6,
              "missing": 6,
              "children": [
                {
                  "nodeid": 5,
                  "depth": 2,
                  "split": "f25",
                  "split_condition": 98.7900009,
                  "yes": 11,
                  "no": 12,
                  "missing": 12,
                  "children": [
                    {
                      "nodeid": 11,
                      "depth": 3,
                      "split": "f10",
                      "split_condition": 35.4373131,
                      "yes": 23,
                      "no": 24,
                      "missing": 24,
                      "children": [
                        {
                          "nodeid": 23,
                          "leaf": 1.13099754
                        },
                        {
                          "nodeid": 24,
                          "leaf": 0.246034771
                        }
                      ]
                    },
                    {
                      "nodeid": 12,
                      "depth": 3,
                      "split": "f11",
                      "split_condition": 35.6774445,
                      "yes": 25,
                      "no": 26,
                      "missing": 25,
                      "children": [
                        {
                          "nodeid": 25,
                          "leaf": 0.213291273
                        },
                        {
                          "nodeid": 26,
                          "leaf": -0.05035441
                        }
                      ]
                    }
                  ]
                },
                {
                  "nodeid": 6,
                  "depth": 2,
                  "split": "f11",
                  "split_condition": 41.0292892,
                  "yes": 13,
                  "no": 14,
                  "missing": 14,
                  "children": [
                    {
                      "nodeid": 13,
                      "depth": 3,
                      "split": "f24",
                      "split_condition": 0.340000004,
                      "yes": 27,
                      "no": 28,
                      "missing": 27,
                      "children": [
                        {
                          "nodeid": 27,
                          "leaf": -1.41318238
                        },
                        {
                          "nodeid": 28,
                          "leaf": -0.259126723
                        }
                      ]
                    },
                    {
                      "nodeid": 14,
                      "depth": 3,
                      "split": "f11",
                      "split_condition": 63.1649818,
                      "yes": 29,
                      "no": 30,
                      "missing": 29,
                      "children": [
                        {
                          "nodeid": 29,
                          "leaf": -0.0793868899
                        },
                        {
                          "nodeid": 30,
                          "leaf": -0.467948437
                        }
                      ]
                    }
                  ]
                }
              ]
            }
          ]
        },
        {
          "nodeid": 0,
          "depth": 0,
          "split": "f9",
          "split_condition": 85.5465546,
          "yes": 1,
          "no": 2,
          "missing": 1,
          "children": [
            {
              "nodeid": 1,
              "depth": 1,
              "split": "f30",
              "split_condition": -6.68023109,
              "yes": 3,
              "no": 4,
              "missing": 4,
              "children": [
                {
                  "nodeid": 3,
                  "depth": 2,
                  "split": "f13",
                  "split_condition": 30.7692299,
                  "yes": 7,
                  "no": 8,
                  "missing": 7,
                  "children": [
                    {
                      "nodeid": 7,
                      "depth": 3,
                      "split": "f25",
                      "split_condition": 108.32,
                      "yes": 13,
                      "no": 14,
                      "missing": 13,
                      "children": [
                        {
                          "nodeid": 13,
                          "leaf": 0.124719463
                        },
                        {
                          "nodeid": 14,
                          "leaf": 0.737457514
                        }
                      ]
                    },
                    {
                      "nodeid": 8,
                      "depth": 3,
                      "split": "f10",
                      "split_condition": 34.5778732,
                      "yes": 15,
                      "no": 16,
                      "missing": 16,
                      "children": [
                        {
                          "nodeid": 15,
                          "leaf": 1.24108887
                        },
                        {
                          "nodeid": 16,
                          "leaf": 0.117348962
                        }
                      ]
                    }
                  ]
                },
                {
                  "nodeid": 4,
                  "depth": 2,
                  "split": "f20",
                  "split_condition": 20.3700008,
                  "yes": 9,
                  "no": 10,
                  "missing": 9,
                  "children": [
                    {
                      "nodeid": 9,
                      "depth": 3,
                      "split": "f25",
                      "split_condition": 98.4300003,
                      "yes": 17,
                      "no": 18,
                      "missing": 18,
                      "children": [
                        {
                          "nodeid": 17,
                          "leaf": 0.362393677
                        },
                        {
                          "nodeid": 18,
                          "leaf": -0.046938546
                        }
                      ]
                    },
                    {
                      "nodeid": 10,
                      "depth": 3,
                      "split": "f9",
                      "split_condition": 68.2822647,
                      "yes": 19,
                      "no": 20,
                      "missing": 20,
                      "children": [
                        {
                          "nodeid": 19,
                          "leaf": 0.125719637
                        },
                        {
                          "nodeid": 20,
                          "leaf": 0.630658507
                        }
                      ]
                    }
                  ]
                }
              ]
            },
            {
              "nodeid": 2,
              "depth": 1,
              "split": "f20",
              "split_condition": 14.1000004,
              "yes": 5,
              "no": 6,
              "missing": 6,
              "children": [
                {
                  "nodeid": 5,
                  "leaf": -1.02931774
                },
                {
                  "nodeid": 6,
                  "depth": 2,
                  "split": "f10",
                  "split_condition": 77.4998016,
                  "yes": 11,
                  "no": 12,
                  "missing": 12,
                  "children": [
                    {
                      "nodeid": 11,
                      "depth": 3,
                      "split": "f35",
                      "split_condition": -0.550833046,
                      "yes": 21,
                      "no": 22,
                      "missing": 21,
                      "children": [
                        {
                          "nodeid": 21,
                          "leaf": -0.341848314
                        },
                        {
                          "nodeid": 22,
                          "leaf": 0.122114658
                        }
                      ]
                    },
                    {
                      "nodeid": 12,
                      "depth": 3,
                      "split": "f8",
                      "split_condition": 16.268261,
                      "yes": 23,
                      "no": 24,
                      "missing": 24,
                      "children": [
                        {
                          "nodeid": 23,
                          "leaf": -0.816832364
                        },
                        {
                          "nodeid": 24,
                          "leaf": -0.249367222
                        }
                      ]
                    }
                  ]
                }
              ]
            }
          ]
        },
        {
          "nodeid": 0,
          "depth": 0,
          "split": "f9",
          "split_condition": 85.2403717,
          "yes": 1,
          "no": 2,
          "missing": 2,
          "children": [
            {
              "nodeid": 1,
              "depth": 1,
              "split": "f20",
              "split_condition": 20.1900005,
              "yes": 3,
              "no": 4,
              "missing": 3,
              "children": [
                {
                  "nodeid": 3,
                  "depth": 2,
                  "split": "f25",
                  "split_condition": 108.959999,
                  "yes": 7,
                  "no": 8,
                  "missing": 7,
                  "children": [
                    {
                      "nodeid": 7,
                      "depth": 3,
                      "split": "f25",
                      "split_condition": 98.9300003,
                      "yes": 15,
                      "no": 16,
                      "missing": 15,
                      "children": [
                        {
                          "nodeid": 15,
                          "leaf": 0.0898094699
                        },
                        {
                          "nodeid": 16,
                          "leaf": -0.0435103104
                        }
                      ]
                    },
                    {
                      "nodeid": 8,
                      "leaf": 0.539799392
                    }
                  ]
                },
                {
                  "nodeid": 4,
                  "depth": 2,
                  "split": "f9",
                  "split_condition": 74.9219666,
                  "yes": 9,
                  "no": 10,
                  "missing": 10,
                  "children": [
                    {
                      "nodeid": 9,
                      "depth": 3,
                      "split": "f11",
                      "split_condition": 44.3451462,
                      "yes": 17,
                      "no": 18,
                      "missing": 18,
                      "children": [
                        {
                          "nodeid": 17,
                          "leaf": 0.088495262
                        },
                        {
                          "nodeid": 18,
                          "leaf": 0.331204236
                        }
                      ]
                    },
                    {
                      "nodeid": 10,
                      "leaf": 0.733174503
                    }
                  ]
                }
              ]
            },
            {
              "nodeid": 2,
              "depth": 1,
              "split": "f10",
              "split_condition": 77.1713181,
              "yes": 5,
              "no": 6,
              "missing": 6,
              "children": [
                {
                  "nodeid": 5,
                  "depth": 2,
                  "split": "f8",
                  "split_condition": 5.64409018,
                  "yes": 11,
                  "no": 12,
                  "missing": 12,
                  "children": [
                    {
                      "nodeid": 11,
                      "depth": 3,
                      "split": "f10",
                      "split_condition": 57.3482399,
                      "yes": 19,
                      "no": 20,
                      "missing": 20,
                      "children": [
                        {
                          "nodeid": 19,
                          "leaf": -1.03148282
                        },
                        {
                          "nodeid": 20,
                          "leaf": -0.377097279
                        }
                      ]
                    },
                    {
                      "nodeid": 12,
                      "depth": 3,
                      "split": "f11",
                      "split_condition": 53.5318756,
                      "yes": 21,
                      "no": 22,
                      "missing": 22,
                      "children": [
                        {
                          "nodeid": 21,
                          "leaf": -0.780508101
                        },
                        {
                          "nodeid": 22,
                          "leaf": 0.00768712023
                        }
                      ]
                    }
                  ]
                },
                {
                  "nodeid": 6,
                  "depth": 2,
                  "split": "f11",
                  "split_condition": 63.1649818,
                  "yes": 13,
                  "no": 14,
                  "missing": 13,
                  "children": [
                    {
                      "nodeid": 13,
                      "depth": 3,
                      "split": "f34",
                      "split_condition": 14.0357141,
                      "yes": 23,
                      "no": 24,
                      "missing": 24,
                      "children": [
                        {
                          "nodeid": 23,
                          "leaf": -0.695893168
                        },
                        {
                          "nodeid": 24,
                          "leaf": -0.222207934
                        }
                      ]
                    },
                    {
                      "nodeid": 14,
                      "depth": 3,
                      "split": "f27",
                      "split_condition": 73.3936386,
                      "yes": 25,
                      "no": 26,
                      "missing": 26,
                      "children": [
                        {
                          "nodeid": 25,
                          "leaf": -1.02054155
                        },
                        {
                          "nodeid": 26,
                          "leaf": -0.340957344
                        }
                      ]
                    }
                  ]
                }
              ]
            }
          ]
        },
        {
          "nodeid": 0,
          "depth": 0,
          "split": "f15",
          "split_condition": 60.7569733,
          "yes": 1,
          "no": 2,
          "missing": 1,
          "children": [
            {
              "nodeid": 1,
              "depth": 1,
              "split": "f9",
              "split_condition": 49.9099579,
              "yes": 3,
              "no": 4,
              "missing": 4,
              "children": [
                {
                  "nodeid": 3,
                  "depth": 2,
                  "split": "f23",
                  "split_condition": 0.363996774,
                  "yes": 7,
                  "no": 8,
                  "missing": 7,
                  "children": [
                    {
                      "nodeid": 7,
                      "depth": 3,
                      "split": "f0",
                      "split_condition": 19.6015701,
                      "yes": 13,
                      "no": 14,
                      "missing": 14,
                      "children": [
                        {
                          "nodeid": 13,
                          "leaf": -0.0785879195
                        },
                        {
                          "nodeid": 14,
                          "leaf": 0.260109931
                        }
                      ]
                    },
                    {
                      "nodeid": 8,
                      "depth": 3,
                      "split": "f8",
                      "split_condition": 97.5431595,
                      "yes": 15,
                      "no": 16,
                      "missing": 16,
                      "children": [
                        {
                          "nodeid": 15,
                          "leaf": -0.331685841
                        },
                        {
                          "nodeid": 16,
                          "leaf": 0.100971781
                        }
                      ]
                    }
                  ]
                },
                {
                  "nodeid": 4,
                  "depth": 2,
                  "split": "f9",
                  "split_condition": 71.0305557,
                  "yes": 9,
                  "no": 10,
                  "missing": 9,
                  "children": [
                    {
                      "nodeid": 9,
                      "depth": 3,
                      "split": "f0",
                      "split_condition": 17.1227531,
                      "yes": 17,
                      "no": 18,
                      "missing": 18,
                      "children": [
                        {
                          "nodeid": 17,
                          "leaf": 0.598701596
                        },
                        {
                          "nodeid": 18,
                          "leaf": -0.108206823
                        }
                      ]
                    },
                    {
                      "nodeid": 10,
                      "depth": 3,
                      "split": "f11",
                      "split_condition": 59.4809113,
                      "yes": 19,
                      "no": 20,
                      "missing": 20,
                      "children": [
                        {
                          "nodeid": 19,
                          "leaf": 0.270341218
                        },
                        {
                          "nodeid": 20,
                          "leaf": -0.0767093077
                        }
                      ]
                    }
                  ]
                }
              ]
            },
            {
              "nodeid": 2,
              "depth": 1,
              "split": "f8",
              "split_condition": 5.64409018,
              "yes": 5,
              "no": 6,
              "missing": 6,
              "children": [
                {
                  "nodeid": 5,
                  "leaf": -0.742413461
                },
                {
                  "nodeid": 6,
                  "depth": 2,
                  "split": "f13",
                  "split_condition": 61.2179489,
                  "yes": 11,
                  "no": 12,
                  "missing": 11,
                  "children": [
                    {
                      "nodeid": 11,
                      "depth": 3,
                      "split": "f35",
                      "split_condition": 0.761538506,
                      "yes": 21,
                      "no": 22,
                      "missing": 22,
                      "children": [
                        {
                          "nodeid": 21,
                          "leaf": -0.157191083
                        },
                        {
                          "nodeid": 22,
                          "leaf": 0.380724877
                        }
                      ]
                    },
                    {
                      "nodeid": 12,
                      "depth": 3,
                      "split": "f25",
                      "split_condition": 98.6200027,
                      "yes": 23,
                      "no": 24,
                      "missing": 24,
                      "children": [
                        {
                          "nodeid": 23,
                          "leaf": 0.674561322
                        },
                        {
                          "nodeid": 24,
                          "leaf": 0.0539192818
                        }
                      ]
                    }
                  ]
                }
              ]
            }
          ]
        },
        {
          "nodeid": 0,
          "depth": 0,
          "split": "f15",
          "split_condition": 48.891613,
          "yes": 1,
          "no": 2,
          "missing": 2,
          "children": [
            {
              "nodeid": 1,
              "depth": 1,
              "split": "f9",
              "split_condition": 76.4729614,
              "yes": 3,
              "no": 4,
              "missing": 4,
              "children": [
                {
                  "nodeid": 3,
                  "depth": 2,
                  "split": "f34",
                  "split_condition": 15.6560001,
                  "yes": 7,
                  "no": 8,
                  "missing": 8,
                  "children": [
                    {
                      "nodeid": 7,
                      "depth": 3,
                      "split": "f34",
                      "split_condition": 14.3207693,
                      "yes": 13,
                      "no": 14,
                      "missing": 14,
                      "children": [
                        {
                          "nodeid": 13,
                          "leaf": 0.0945441946
                        },
                        {
                          "nodeid": 14,
                          "leaf": -0.658172369
                        }
                      ]
                    },
                    {
                      "nodeid": 8,
                      "depth": 3,
                      "split": "f24",
                      "split_condition": -0.75999999,
                      "yes": 15,
                      "no": 16,
                      "missing": 16,
                      "children": [
                        {
                          "nodeid": 15,
                          "leaf": -0.235310242
                        },
                        {
                          "nodeid": 16,
                          "leaf": 0.16002506
                        }
                      ]
                    }
                  ]
                },
                {
                  "nodeid": 4,
                  "depth": 2,
                  "split": "f29",
                  "split_condition": 9.21984291,
                  "yes": 9,
                  "no": 10,
                  "missing": 10,
                  "children": [
                    {
                      "nodeid": 9,
                      "leaf": 0.944558263
                    },
                    {
                      "nodeid": 10,
                      "depth": 3,
                      "split": "f28",
                      "split_condition": 65.2641525,
                      "yes": 17,
                      "no": 18,
                      "missing": 18,
                      "children": [
                        {
                          "nodeid": 17,
                          "leaf": 0.465592712
                        },
                        {
                          "nodeid": 18,
                          "leaf": -0.0263014566
                        }
                      ]
                    }
                  ]
                }
              ]
            },
            {
              "nodeid": 2,
              "depth": 1,
              "split": "f24",
              "split_condition": 0.680000007,
              "yes": 5,
              "no": 6,
              "missing": 5,
              "children": [
                {
                  "nodeid": 5,
                  "depth": 2,
                  "split": "f29",
                  "split_condition": 9.39626217,
                  "yes": 11,
                  "no": 12,
                  "missing": 12,
                  "children": [
                    {
                      "nodeid": 11,
                      "depth": 3,
                      "split": "f9",
                      "split_condition": 37.6735878,
                      "yes": 19,
                      "no": 20,
                      "missing": 20,
                      "children": [
                        {
                          "nodeid": 19,
                          "leaf": 0.195232064
                        },
                        {
                          "nodeid": 20,
                          "leaf": -0.0356315263
                        }
                      ]
                    },
                    {
                      "nodeid": 12,
                      "depth": 3,
                      "split": "f29",
                      "split_condition": 11.6537094,
                      "yes": 21,
                      "no": 22,
                      "missing": 21,
                      "children": [
                        {
                          "nodeid": 21,
                          "leaf": -0.239965841
                        },
                        {
                          "nodeid": 22,
                          "leaf": 0.0704269037
                        }
                      ]
                    }
                  ]
                },
                {
                  "nodeid": 6,
                  "leaf": -0.935515702
                }
              ]
            }
          ]
        },
        {
          "nodeid": 0,
          "depth": 0,
          "split": "f24",
          "split_condition": 0.680000007,
          "yes": 1,
          "no": 2,
          "missing": 1,
          "children": [
            {
              "nodeid": 1,
              "depth": 1,
              "split": "f20",
              "split_condition": 17.8500004,
              "yes": 3,
              "no": 4,
              "missing": 4,
              "children": [
                {
                  "nodeid": 3,
                  "depth": 2,
                  "split": "f8",
                  "split_condition": 1.66002655,
                  "yes": 5,
                  "no": 6,
                  "missing": 6,
                  "children": [
                    {
                      "nodeid": 5,
                      "leaf": -0.652112961
                    },
                    {
                      "nodeid": 6,
                      "depth": 3,
                      "split": "f24",
                      "split_condition": 0.519999981,
                      "yes": 9,
                      "no": 10,
                      "missing": 10,
                      "children": [
                        {
                          "nodeid": 9,
                          "leaf": -0.076075457
                        },
                        {
                          "nodeid": 10,
                          "leaf": 0.132006064
                        }
                      ]
                    }
                  ]
                },
                {
                  "nodeid": 4,
                  "depth": 2,
                  "split": "f18",
                  "split_condition": 3,
                  "yes": 7,
                  "no": 8,
                  "missing": 8,
                  "children": [
                    {
                      "nodeid": 7,
                      "depth": 3,
                      "split": "f24",
                      "split_condition": -0.769999981,
                      "yes": 11,
                      "no": 12,
                      "missing": 11,
                      "children": [
                        {
                          "nodeid": 11,
                          "leaf": -0.00239890185
                        },
                        {
                          "nodeid": 12,
                          "leaf": 0.158059284
                        }
                      ]
                    },
                    {
                      "nodeid": 8,
                      "depth": 3,
                      "split": "f0",
                      "split_condition": 80.2064667,
                      "yes": 13,
                      "no": 14,
                      "missing": 14,
                      "children": [
                        {
                          "nodeid": 13,
                          "leaf": -0.863809109
                        },
                        {
                          "nodeid": 14,
                          "leaf": -0.102885358
                        }
                      ]
                    }
                  ]
                }
              ]
            },
            {
              "nodeid": 2,
              "leaf": -0.85365814
            }
          ]
        },
        {
          "nodeid": 0,
          "depth": 0,
          "split": "f27",
          "split_condition": 69.5239639,
          "yes": 1,
          "no": 2,
          "missing": 2,
          "children": [
            {
              "nodeid": 1,
              "depth": 1,
              "split": "f30",
              "split_condition": 1.45375383,
              "yes": 3,
              "no": 4,
              "missing": 4,
              "children": [
                {
                  "nodeid": 3,
                  "depth": 2,
                  "split": "f13",
                  "split_condition": 70.8333359,
                  "yes": 7,
                  "no": 8,
                  "missing": 7,
                  "children": [
                    {
                      "nodeid": 7,
                      "depth": 3,
                      "split": "f25",
                      "split_condition": 108.32,
                      "yes": 15,
                      "no": 16,
                      "missing": 15,
                      "children": [
                        {
                          "nodeid": 15,
                          "leaf": 0.0534103401
                        },
                        {
                          "nodeid": 16,
                          "leaf": 0.492501646
                        }
                      ]
                    },
                    {
                      "nodeid": 8,
                      "depth": 3,
                      "split": "f23",
                      "split_condition": 0.316756576,
                      "yes": 17,
                      "no": 18,
                      "missing": 17,
                      "children": [
                        {
                          "nodeid": 17,
                          "leaf": 0.969621658
                        },
                        {
                          "nodeid": 18,
                          "leaf": 0.0285002738
                        }
                      ]
                    }
                  ]
                },
                {
                  "nodeid": 4,
                  "depth": 2,
                  "split": "f1",
                  "split_condition": 12.7118731,
                  "yes": 9,
                  "no": 10,
                  "missing": 10,
                  "children": [
                    {
                      "nodeid": 9,
                      "leaf": -0.896304309
                    },
                    {
                      "nodeid": 10,
                      "depth": 3,
                      "split": "f34",
                      "split_condition": 13.9342852,
                      "yes": 19,
                      "no": 20,
                      "missing": 20,
                      "children": [
                        {
                          "nodeid": 19,
                          "leaf": -0.254103333
                        },
                        {
                          "nodeid": 20,
                          "leaf": -0.00443274481
                        }
                      ]
                    }
                  ]
                }
              ]
            },
            {
              "nodeid": 2,
              "depth": 1,
              "split": "f9",
              "split_condition": 85.5465546,
              "yes": 5,
              "no": 6,
              "missing": 6,
              "children": [
                {
                  "nodeid": 5,
                  "depth": 2,
                  "split": "f29",
                  "split_condition": 9.45351315,
                  "yes": 11,
                  "no": 12,
                  "missing": 12,
                  "children": [
                    {
                      "nodeid": 11,
                      "depth": 3,
                      "split": "f17",
                      "split_condition": 24.8457413,
                      "yes": 21,
                      "no": 22,
                      "missing": 22,
                      "children": [
                        {
                          "nodeid": 21,
                          "leaf": 0.352926105
                        },
                        {
                          "nodeid": 22,
                          "leaf": -0.127665654
                        }
                      ]
                    },
                    {
                      "nodeid": 12,
                      "leaf": -0.336078167
                    }
                  ]
                },
                {
                  "nodeid": 6,
                  "depth": 2,
                  "split": "f13",
                  "split_condition": 50.0056572,
                  "yes": 13,
                  "no": 14,
                  "missing": 14,
                  "children": [
                    {
                      "nodeid": 13,
                      "leaf": -0.0058148941
                    },
                    {
                      "nodeid": 14,
                      "depth": 3,
                      "split": "f0",
                      "split_condition": 68.7502899,
                      "yes": 23,
                      "no": 24,
                      "missing": 24,
                      "children": [
                        {
                          "nodeid": 23,
                          "leaf": -0.376285881
                        },
                        {
                          "nodeid": 24,
                          "leaf": -0.795960605
                        }
                      ]
                    }
                  ]
                }
              ]
            }
          ]
        },
        {
          "nodeid": 0,
          "depth": 0,
          "split": "f0",
          "split_condition": 56.4243126,
          "yes": 1,
          "no": 2,
          "missing": 2,
          "children": [
            {
              "nodeid": 1,
              "depth": 1,
              "split": "f30",
              "split_condition": 5.28034306,
              "yes": 3,
              "no": 4,
              "missing": 4,
              "children": [
                {
                  "nodeid": 3,
                  "depth": 2,
                  "split": "f29",
                  "split_condition": 6.48334503,
                  "yes": 7,
                  "no": 8,
                  "missing": 7,
                  "children": [
                    {
                      "nodeid": 7,
                      "depth": 3,
                      "split": "f25",
                      "split_condition": 101.589996,
                      "yes": 13,
                      "no": 14,
                      "missing": 14,
                      "children": [
                        {
                          "nodeid": 13,
                          "leaf": 0.234347135
                        },
                        {
                          "nodeid": 14,
                          "leaf": -0.145606026
                        }
                      ]
                    },
                    {
                      "nodeid": 8,
                      "depth": 3,
                      "split": "f8",
                      "split_condition": 3.38645411,
                      "yes": 15,
                      "no": 16,
                      "missing": 16,
                      "children": [
                        {
                          "nodeid": 15,
                          "leaf": -0.386651039
                        },
                        {
                          "nodeid": 16,
                          "leaf": 0.152036101
                        }
                      ]
                    }
                  ]
                },
                {
                  "nodeid": 4,
                  "depth": 2,
                  "split": "f16",
                  "split_condition": 91.9460526,
                  "yes": 9,
                  "no": 10,
                  "missing": 10,
                  "children": [
                    {
                      "nodeid": 9,
                      "depth": 3,
                      "split": "f9",
                      "split_condition": 53.5666542,
                      "yes": 17,
                      "no": 18,
                      "missing": 17,
                      "children": [
                        {
                          "nodeid": 17,
                          "leaf": -0.0328139924
                        },
                        {
                          "nodeid": 18,
                          "leaf": -0.391783327
                        }
                      ]
                    },
                    {
                      "nodeid": 10,
                      "leaf": -0.660362899
                    }
                  ]
                }
              ]
            },
            {
              "nodeid": 2,
              "depth": 1,
              "split": "f1",
              "split_condition": 18.9989395,
              "yes": 5,
              "no": 6,
              "missing": 6,
              "children": [
                {
                  "nodeid": 5,
                  "leaf": -0.782348812
                },
                {
                  "nodeid": 6,
                  "depth": 2,
                  "split": "f25",
                  "split_condition": 98.6200027,
                  "yes": 11,
                  "no": 12,
                  "missing": 11,
                  "children": [
                    {
                      "nodeid": 11,
                      "depth": 3,
                      "split": "f29",
                      "split_condition": 9.04354572,
                      "yes": 19,
                      "no": 20,
                      "missing": 20,
                      "children": [
                        {
                          "nodeid": 19,
                          "leaf": 0.0719681457
                        },
                        {
                          "nodeid": 20,
                          "leaf": -0.195980281
                        }
                      ]
                    },
                    {
                      "nodeid": 12,
                      "depth": 3,
                      "split": "f8",
                      "split_condition": 34.1965485,
                      "yes": 21,
                      "no": 22,
                      "missing": 21,
                      "children": [
                        {
                          "nodeid": 21,
                          "leaf": -0.366229892
                        },
                        {
                          "nodeid": 22,
                          "leaf": -0.024565069
                        }
                      ]
                    }
                  ]
                }
              ]
            }
          ]
        },
        {
          "nodeid": 0,
          "depth": 0,
          "split": "f9",
          "split_condition": 85.5465546,
          "yes": 1,
          "no": 2,
          "missing": 1,
          "children": [
            {
              "nodeid": 1,
              "depth": 1,
              "split": "f25",
              "split_condition": 98.4800034,
              "yes": 3,
              "no": 4,
              "missing": 4,
              "children": [
                {
                  "nodeid": 3,
                  "depth": 2,
                  "split": "f24",
                  "split_condition": 0.670000017,
                  "yes": 7,
                  "no": 8,
                  "missing": 8,
                  "children": [
                    {
                      "nodeid": 7,
                      "depth": 3,
                      "split": "f28",
                      "split_condition": 62.2330132,
                      "yes": 15,
                      "no": 16,
                      "missing": 16,
                      "children": [
                        {
                          "nodeid": 15,
                          "leaf": 0.13096039
                        },
                        {
                          "nodeid": 16,
                          "leaf": 0.409071892
                        }
                      ]
                    },
                    {
                      "nodeid": 8,
                      "leaf": 0.801192224
                    }
                  ]
                },
                {
                  "nodeid": 4,
                  "depth": 2,
                  "split": "f20",
                  "split_condition": 22.2900009,
                  "yes": 9,
                  "no": 10,
                  "missing": 9,
                  "children": [
                    {
                      "nodeid": 9,
                      "depth": 3,
                      "split": "f25",
                      "split_condition": 108.959999,
                      "yes": 17,
                      "no": 18,
                      "missing": 17,
                      "children": [
                        {
                          "nodeid": 17,
                          "leaf": -0.00587418349
                        },
                        {
                          "nodeid": 18,
                          "leaf": 0.539635658
                        }
                      ]
                    },
                    {
                      "nodeid": 10,
                      "depth": 3,
                      "split": "f10",
                      "split_condition": 59.295475,
                      "yes": 19,
                      "no": 20,
                      "missing": 20,
                      "children": [
                        {
                          "nodeid": 19,
                          "leaf": 0.184373513
                        },
                        {
                          "nodeid": 20,
                          "leaf": 0.754906774
                        }
                      ]
                    }
                  ]
                }
              ]
            },
            {
              "nodeid": 2,
              "depth": 1,
              "split": "f10",
              "split_condition": 77.4998016,
              "yes": 5,
              "no": 6,
              "missing": 6,
              "children": [
                {
                  "nodeid": 5,
                  "depth": 2,
                  "split": "f24",
                  "split_condition": 0.649999976,
                  "yes": 11,
                  "no": 12,
                  "missing": 11,
                  "children": [
                    {
                      "nodeid": 11,
                      "depth": 3,
                      "split": "f24",
                      "split_condition": 0.50999999,
                      "yes": 21,
                      "no": 22,
                      "missing": 22,
                      "children": [
                        {
                          "nodeid": 21,
                          "leaf": -0.347097993
                        },
                        {
                          "nodeid": 22,
                          "leaf": 0.0965251997
                        }
                      ]
                    },
                    {
                      "nodeid": 12,
                      "leaf": -0.659483135
                    }
                  ]
                },
                {
                  "nodeid": 6,
                  "depth": 2,
                  "split": "f35",
                  "split_condition": -0.269230902,
                  "yes": 13,
                  "no": 14,
                  "missing": 13,
                  "children": [
                    {
                      "nodeid": 13,
                      "depth": 3,
                      "split": "f16",
                      "split_condition": 75.3084335,
                      "yes": 23,
                      "no": 24,
                      "missing": 24,
                      "children": [
                        {
                          "nodeid": 23,
                          "leaf": -0.380679309
                        },
                        {
                          "nodeid": 24,
                          "leaf": 0.0818339214
                        }
                      ]
                    },
                    {
                      "nodeid": 14,
                      "depth": 3,
                      "split": "f0",
                      "split_condition": 68.7502899,
                      "yes": 25,
                      "no": 26,
                      "missing": 26,
                      "children": [
                        {
                          "nodeid": 25,
                          "leaf": -0.413918078
                        },
                        {
                          "nodeid": 26,
                          "leaf": -0.814063072
                        }
                      ]
                    }
                  ]
                }
              ]
            }
          ]
        },
        {
          "nodeid": 0,
          "depth": 0,
          "split": "f9",
          "split_condition": 51.2464409,
          "yes": 1,
          "no": 2,
          "missing": 1,
          "children": [
            {
              "nodeid": 1,
              "depth": 1,
              "split": "f17",
              "split_condition": 22.7884216,
              "yes": 3,
              "no": 4,
              "missing": 4,
              "children": [
                {
                  "nodeid": 3,
                  "depth": 2,
                  "split": "f34",
                  "split_condition": 17.4192848,
                  "yes": 7,
                  "no": 8,
                  "missing": 7,
                  "children": [
                    {
                      "nodeid": 7,
                      "depth": 3,
                      "split": "f17",
                      "split_condition": 4.91097879,
                      "yes": 15,
                      "no": 16,
                      "missing": 16,
                      "children": [
                        {
                          "nodeid": 15,
                          "leaf": -0.284419835
                        },
                        {
                          "nodeid": 16,
                          "leaf": 0.0954173133
                        }
                      ]
                    },
                    {
                      "nodeid": 8,
                      "depth": 3,
                      "split": "f30",
                      "split_condition": -17.9891434,
                      "yes": 17,
                      "no": 18,
                      "missing": 18,
                      "children": [
                        {
                          "nodeid": 17,
                          "leaf": -0.103984974
                        },
                        {
                          "nodeid": 18,
                          "leaf": 0.327022433
                        }
                      ]
                    }
                  ]
                },
                {
                  "nodeid": 4,
                  "depth": 2,
                  "split": "f28",
                  "split_condition": 34.1236992,
                  "yes": 9,
                  "no": 10,
                  "missing": 10,
                  "children": [
                    {
                      "nodeid": 9,
                      "depth": 3,
                      "split": "f35",
                      "split_condition": -0.89769274,
                      "yes": 19,
                      "no": 20,
                      "missing": 20,
                      "children": [
                        {
                          "nodeid": 19,
                          "leaf": -0.120235302
                        },
                        {
                          "nodeid": 20,
                          "leaf": 0.168968409
                        }
                      ]
                    },
                    {
                      "nodeid": 10,
                      "depth": 3,
                      "split": "f35",
                      "split_condition": 1.09928536,
                      "yes": 21,
                      "no": 22,
                      "missing": 21,
                      "children": [
                        {
                          "nodeid": 21,
                          "leaf": -0.230549261
                        },
                        {
                          "nodeid": 22,
                          "leaf": 0.118063115
                        }
                      ]
                    }
                  ]
                }
              ]
            },
            {
              "nodeid": 2,
              "depth": 1,
              "split": "f9",
              "split_condition": 55.0530205,
              "yes": 5,
              "no": 6,
              "missing": 6,
              "children": [
                {
                  "nodeid": 5,
                  "depth": 2,
                  "split": "f9",
                  "split_condition": 54.3278427,
                  "yes": 11,
                  "no": 12,
                  "missing": 12,
                  "children": [
                    {
                      "nodeid": 11,
                      "depth": 3,
                      "split": "f28",
                      "split_condition": 47.9521255,
                      "yes": 23,
                      "no": 24,
                      "missing": 24,
                      "children": [
                        {
                          "nodeid": 23,
                          "leaf": -0.436715186
                        },
                        {
                          "nodeid": 24,
                          "leaf": 0.000806062133
                        }
                      ]
                    },
                    {
                      "nodeid": 12,
                      "depth": 3,
                      "split": "f35",
                      "split_condition": -0.0515381023,
                      "yes": 25,
                      "no": 26,
                      "missing": 26,
                      "children": [
                        {
                          "nodeid": 25,
                          "leaf": -0.33112675
                        },
                        {
                          "nodeid": 26,
                          "leaf": -0.838551939
                        }
                      ]
                    }
                  ]
                },
                {
                  "nodeid": 6,
                  "depth": 2,
                  "split": "f24",
                  "split_condition": 0.680000007,
                  "yes": 13,
                  "no": 14,
                  "missing": 13,
                  "children": [
                    {
                      "nodeid": 13,
                      "depth": 3,
                      "split": "f23",
                      "split_condition": 0.278330266,
                      "yes": 27,
                      "no": 28,
                      "missing": 28,
                      "children": [
                        {
                          "nodeid": 27,
                          "leaf": -0.552416503
                        },
                        {
                          "nodeid": 28,
                          "leaf": -0.00850159023
                        }
                      ]
                    },
                    {
                      "nodeid": 14,
                      "leaf": -0.627900302
                    }
                  ]
                }
              ]
            }
          ]
        },
        {
          "nodeid": 0,
          "depth": 0,
          "split": "f15",
          "split_condition": 60.7569733,
          "yes": 1,
          "no": 2,
          "missing": 2,
          "children": [
            {
              "nodeid": 1,
              "depth": 1,
              "split": "f10",
              "split_condition": 56.3936691,
              "yes": 3,
              "no": 4,
              "missing": 4,
              "children": [
                {
                  "nodeid": 3,
                  "depth": 2,
                  "split": "f10",
                  "split_condition": 48.5008888,
                  "yes": 7,
                  "no": 8,
                  "missing": 8,
                  "children": [
                    {
                      "nodeid": 7,
                      "depth": 3,
                      "split": "f15",
                      "split_condition": 16.579834,
                      "yes": 13,
                      "no": 14,
                      "missing": 14,
                      "children": [
                        {
                          "nodeid": 13,
                          "leaf": 0.284950703
                        },
                        {
                          "nodeid": 14,
                          "leaf": -0.0204735603
                        }
                      ]
                    },
                    {
                      "nodeid": 8,
                      "depth": 3,
                      "split": "f25",
                      "split_condition": 104,
                      "yes": 15,
                      "no": 16,
                      "missing": 16,
                      "children": [
                        {
                          "nodeid": 15,
                          "leaf": -0.134090483
                        },
                        {
                          "nodeid": 16,
                          "leaf": -0.518695176
                        }
                      ]
                    }
                  ]
                },
                {
                  "nodeid": 4,
                  "depth": 2,
                  "split": "f27",
                  "split_condition": 49.1362801,
                  "yes": 9,
                  "no": 10,
                  "missing": 10,
                  "children": [
                    {
                      "nodeid": 9,
                      "leaf": 0.6021263
                    },
                    {
                      "nodeid": 10,
                      "depth": 3,
                      "split": "f11",
                      "split_condition": 54.7276649,
                      "yes": 17,
                      "no": 18,
                      "missing": 18,
                      "children": [
                        {
                          "nodeid": 17,
                          "leaf": 0.0917733312
                        },
                        {
                          "nodeid": 18,
                          "leaf": 0.315756559
                        }
                      ]
                    }
                  ]
                }
              ]
            },
            {
              "nodeid": 2,
              "depth": 1,
              "split": "f9",
              "split_condition": 7.46413851,
              "yes": 5,
              "no": 6,
              "missing": 6,
              "children": [
                {
                  "nodeid": 5,
                  "leaf": 0.665947139
                },
                {
                  "nodeid": 6,
                  "depth": 2,
                  "split": "f17",
                  "split_condition": 22.7884216,
                  "yes": 11,
                  "no": 12,
                  "missing": 12,
                  "children": [
                    {
                      "nodeid": 11,
                      "depth": 3,
                      "split": "f27",
                      "split_condition": 47.6164856,
                      "yes": 19,
                      "no": 20,
                      "missing": 20,
                      "children": [
                        {
                          "nodeid": 19,
                          "leaf": 0.123108499
                        },
                        {
                          "nodeid": 20,
                          "leaf": -0.092224896
                        }
                      ]
                    },
                    {
                      "nodeid": 12,
                      "depth": 3,
                      "split": "f25",
                      "split_condition": 105.199997,
                      "yes": 21,
                      "no": 22,
                      "missing": 22,
                      "children": [
                        {
                          "nodeid": 21,
                          "leaf": -0.0563100651
                        },
                        {
                          "nodeid": 22,
                          "leaf": -0.344985068
                        }
                      ]
                    }
                  ]
                }
              ]
            }
          ]
        },
        {
          "nodeid": 0,
          "depth": 0,
          "split": "f9",
          "split_condition": 85.6897812,
          "yes": 1,
          "no": 2,
          "missing": 2,
          "children": [
            {
              "nodeid": 1,
              "depth": 1,
              "split": "f25",
              "split_condition": 98.9300003,
              "yes": 3,
              "no": 4,
              "missing": 4,
              "children": [
                {
                  "nodeid": 3,
                  "depth": 2,
                  "split": "f8",
                  "split_condition": 13.3466139,
                  "yes": 7,
                  "no": 8,
                  "missing": 8,
                  "children": [
                    {
                      "nodeid": 7,
                      "depth": 3,
                      "split": "f13",
                      "split_condition": 78.1100006,
                      "yes": 15,
                      "no": 16,
                      "missing": 16,
                      "children": [
                        {
                          "nodeid": 15,
                          "leaf": 0.782485783
                        },
                        {
                          "nodeid": 16,
                          "leaf": 0.309154063
                        }
                      ]
                    },
                    {
                      "nodeid": 8,
                      "depth": 3,
                      "split": "f25",
                      "split_condition": 98.3499985,
                      "yes": 17,
                      "no": 18,
                      "missing": 18,
                      "children": [
                        {
                          "nodeid": 17,
                          "leaf": 0.00219612732
                        },
                        {
                          "nodeid": 18,
                          "leaf": 0.340010494
                        }
                      ]
                    }
                  ]
                },
                {
                  "nodeid": 4,
                  "depth": 2,
                  "split": "f11",
                  "split_condition": 57.3611755,
                  "yes": 9,
                  "no": 10,
                  "missing": 9,
                  "children": [
                    {
                      "nodeid": 9,
                      "depth": 3,
                      "split": "f8",
                      "split_condition": 81.4741058,
                      "yes": 19,
                      "no": 20,
                      "missing": 19,
                      "children": [
                        {
                          "nodeid": 19,
                          "leaf": 0.0722623393
                        },
                        {
                          "nodeid": 20,
                          "leaf": -0.0984034538
                        }
                      ]
                    },
                    {
                      "nodeid": 10,
                      "depth": 3,
                      "split": "f9",
                      "split_condition": 83.0063477,
                      "yes": 21,
                      "no": 22,
                      "missing": 22,
                      "children": [
                        {
                          "nodeid": 21,
                          "leaf": -0.146985695
                        },
                        {
                          "nodeid": 22,
                          "leaf": 0.356051087
                        }
                      ]
                    }
                  ]
                }
              ]
            },
            {
              "nodeid": 2,
              "depth": 1,
              "split": "f13",
              "split_condition": 19.8717957,
              "yes": 5,
